{"perbatch_Train_Epoch_Loss": 2.982194687190809, "_timestamp": 1685010759.8169549, "_runtime": 93.55920386314392, "_step": 37, "gradients/LM_FC.bias": {"_type": "histogram", "values": [1.0, 1.0, 0.0, 1.0, 1.0, 4.0, 399966.0, 7.0, 5.0, 5.0, 1.0, 0.0, 0.0, 1.0, 1.0, 0.0, 0.0, 2.0, 1.0, 0.0, 0.0, 0.0, 0.0, 0.0, 1.0, 0.0, 0.0, 0.0, 0.0, 0.0, 1.0, 0.0, 0.0, 0.0, 0.0, 0.0, 0.0, 0.0, 0.0, 0.0, 0.0, 0.0, 0.0, 0.0, 0.0, 0.0, 0.0, 0.0, 0.0, 0.0, 0.0, 0.0, 0.0, 0.0, 0.0, 0.0, 0.0, 0.0, 0.0, 0.0, 0.0, 0.0, 0.0, 1.0], "bins": [-5.926281687607116e-11, -5.050699095066058e-11, -4.1751165025250003e-11, -3.2995335630392475e-11, -2.42395097049819e-11, -1.5483683779571322e-11, -6.727854384713794e-12, 2.0279680712498305e-12, 1.0783797466107359e-11, 1.9539626860964887e-11, 2.829544931692851e-11, 3.705127871178604e-11, 4.580710810664357e-11, 5.456293056260719e-11, 6.331875301857082e-11, 7.207458241342835e-11, 8.083041180828587e-11, 8.95862412031434e-11, 9.834207059800093e-11, 1.0709788611507065e-10, 1.1585371550992818e-10, 1.246095449047857e-10, 1.3336537429964324e-10, 1.4212120369450076e-10, 1.508770330893583e-10, 1.59632848606428e-10, 1.6838867800128554e-10, 1.7714449351835526e-10, 1.859003229132128e-10, 1.9465615230807032e-10, 2.0341198170292785e-10, 2.1216781109778537e-10, 2.209236404926429e-10, 2.2967946988750043e-10, 2.3843529928235796e-10, 2.471911286772155e-10, 2.55946958072073e-10, 2.6470278746693054e-10, 2.7345858910621246e-10, 2.8221441850107e-10, 2.909702478959275e-10, 2.9972607729078504e-10, 3.0848190668564257e-10, 3.172377360805001e-10, 3.2599356547535763e-10, 3.3474939487021516e-10, 3.435052242650727e-10, 3.522610536599302e-10, 3.6101688305478774e-10, 3.6977271244964527e-10, 3.785285418445028e-10, 3.872843434837847e-10, 3.9604017287864224e-10, 4.0479600227349977e-10, 4.135518316683573e-10, 4.223076610632148e-10, 4.3106349045807235e-10, 4.398193198529299e-10, 4.485751214922118e-10, 4.573309508870693e-10, 4.660867802819268e-10, 4.748426096767844e-10, 4.835984390716419e-10, 4.923542684664994e-10, 5.01110097861357e-10]}, "gradients/LM_FC.weight": {"_type": "histogram", "values": [1.0, 0.0, 0.0, 1.0, 0.0, 0.0, 0.0, 0.0, 2.0, 1.0, 0.0, 2.0, 3.0, 7.0, 2.0, 4.0, 2.0, 6.0, 3.0, 5.0, 5.0, 10.0, 14.0, 15.0, 26.0, 19.0, 14.0, 25.0, 28.0, 36.0, 48.0, 98.0, 150.0, 291.0, 709.0, 119994080.0, 2844.0, 694.0, 337.0, 146.0, 85.0, 50.0, 55.0, 32.0, 24.0, 15.0, 22.0, 23.0, 10.0, 7.0, 16.0, 3.0, 9.0, 3.0, 6.0, 4.0, 1.0, 1.0, 5.0, 1.0, 2.0, 0.0, 0.0, 1.0], "bins": [-0.0002951209607999772, -0.0002869087038561702, -0.0002786964178085327, -0.0002704841608647257, -0.00026227187481708825, -0.00025405961787328124, -0.0002458473318256438, -0.00023763507488183677, -0.0002294227888341993, -0.0002212105318903923, -0.00021299824584275484, -0.00020478598889894783, -0.0001965737174032256, -0.00018836144590750337, -0.00018014917441178113, -0.0001719369029160589, -0.00016372463142033666, -0.00015551235992461443, -0.0001473000884288922, -0.00013908781693316996, -0.00013087554543744773, -0.0001226632739417255, -0.00011445100244600326, -0.00010623873095028102, -9.802647400647402e-05, -8.981420251075178e-05, -8.160193101502955e-05, -7.338965951930732e-05, -6.517738802358508e-05, -5.696511652786285e-05, -4.875284503214061e-05, -4.054055898450315e-05, -3.232831659261137e-05, -2.4116059648804367e-05, -1.5903773601166904e-05, -7.69150210544467e-06, 5.207693902775645e-07, 8.733040885999799e-06, 1.6945312381722033e-05, 2.5157583877444267e-05, 3.33698553731665e-05, 4.158211231697351e-05, 4.979438381269574e-05, 5.8006655308417976e-05, 6.621892680414021e-05, 7.443119829986244e-05, 8.264346979558468e-05, 9.085574129130691e-05, 9.906801278702915e-05, 0.00010728028428275138, 0.00011549255577847362, 0.00012370482727419585, 0.00013191709876991808, 0.0001401293557137251, 0.00014834164176136255, 0.00015655389870516956, 0.00016476618475280702, 0.00017297844169661403, 0.0001811907277442515, 0.0001894029846880585, 0.00019761525618378073, 0.00020582752767950296, 0.0002140397991752252, 0.00022225207067094743, 0.00023046434216666967]}, "gradients/lstm.bias_hh_l5": {"_type": "histogram", "values": [1.0, 0.0, 0.0, 0.0, 0.0, 0.0, 0.0, 0.0, 0.0, 0.0, 0.0, 0.0, 1.0, 0.0, 1.0, 0.0, 0.0, 1.0, 0.0, 0.0, 0.0, 0.0, 2.0, 0.0, 2.0, 3.0, 2.0, 4.0, 3.0, 18.0, 31.0, 1030.0, 53.0, 14.0, 15.0, 7.0, 4.0, 2.0, 2.0, 1.0, 1.0, 0.0, 0.0, 1.0, 0.0, 0.0, 0.0, 0.0, 0.0, 0.0, 0.0, 0.0, 0.0, 0.0, 0.0, 0.0, 0.0, 0.0, 0.0, 0.0, 0.0, 0.0, 0.0, 1.0], "bins": [-5.196985512156971e-05, -5.033371053286828e-05, -4.869756230618805e-05, -4.706141771748662e-05, -4.542527312878519e-05, -4.378912490210496e-05, -4.215298031340353e-05, -4.05168320867233e-05, -3.888068749802187e-05, -3.7244542909320444e-05, -3.560839468264021e-05, -3.397225009393878e-05, -3.233610186725855e-05, -3.069995727855712e-05, -2.9063812689855695e-05, -2.7427666282164864e-05, -2.5791519874474034e-05, -2.4155373466783203e-05, -2.2519227059092373e-05, -2.0883082470390946e-05, -1.924693424371071e-05, -1.7610789655009285e-05, -1.5974645066307858e-05, -1.4338496839627624e-05, -1.2702352250926197e-05, -1.106620766222477e-05, -9.430059435544536e-06, -7.793914846843109e-06, -6.1577702581416816e-06, -4.5216220314614475e-06, -2.8854774427600205e-06, -1.2493292160797864e-06, 3.8681173464283347e-07, 2.0229563233442605e-06, 3.6591045500244945e-06, 5.2952491387259215e-06, 6.931397365406156e-06, 8.567541954107583e-06, 1.020368654280901e-05, 1.1839834769489244e-05, 1.347597935819067e-05, 1.5112123946892098e-05, 1.674827217357233e-05, 1.838441676227376e-05, 2.0020561350975186e-05, 2.165670957765542e-05, 2.3292854166356847e-05, 2.4929000574047677e-05, 2.6565146981738508e-05, 2.8201293389429338e-05, 2.983743979712017e-05, 3.1473584385821596e-05, 3.310973261250183e-05, 3.474587720120326e-05, 3.6382021789904684e-05, 3.801816637860611e-05, 3.9654314605286345e-05, 4.129046283196658e-05, 4.2926607420668006e-05, 4.456275200936943e-05, 4.619889659807086e-05, 4.7835044824751094e-05, 4.947118941345252e-05, 5.1107337640132755e-05, 5.274348222883418e-05]}, "gradients/lstm.weight_hh_l5": {"_type": "histogram", "values": [2.0, 1.0, 1.0, 3.0, 0.0, 5.0, 5.0, 0.0, 2.0, 3.0, 4.0, 5.0, 2.0, 6.0, 6.0, 7.0, 3.0, 2.0, 7.0, 8.0, 6.0, 2.0, 8.0, 3.0, 1.0, 8.0, 10.0, 86.0, 38.0, 96.0, 223.0, 1451.0, 348810.0, 7978.0, 722.0, 194.0, 52.0, 31.0, 96.0, 7.0, 8.0, 8.0, 3.0, 5.0, 9.0, 3.0, 1.0, 8.0, 6.0, 8.0, 6.0, 8.0, 5.0, 3.0, 4.0, 5.0, 3.0, 1.0, 0.0, 5.0, 1.0, 0.0, 3.0, 3.0], "bins": [-0.0003056257264688611, -0.0002963061269838363, -0.0002869865274988115, -0.0002776669280137867, -0.00026834732852876186, -0.00025902772904373705, -0.00024970812955871224, -0.00024038854462560266, -0.00023106894514057785, -0.00022174934565555304, -0.00021242974617052823, -0.00020311016123741865, -0.00019379056175239384, -0.00018447096226736903, -0.00017515136278234422, -0.0001658317632973194, -0.0001565121638122946, -0.0001471925643272698, -0.00013787296484224498, -0.00012855336535722017, -0.00011923376587219536, -0.00010991418093908578, -0.00010059458145406097, -9.127498196903616e-05, -8.195538248401135e-05, -7.263578299898654e-05, -6.331618351396173e-05, -5.399659858085215e-05, -4.467699909582734e-05, -3.535739961080253e-05, -2.603780012577772e-05, -1.671820064075291e-05, -7.398601155728102e-06, 1.920998329296708e-06, 1.1240597814321518e-05, 2.0560197299346328e-05, 2.9879796784371138e-05, 3.919939626939595e-05, 4.851898120250553e-05, 5.783858068753034e-05, 6.715818017255515e-05, 7.647777965757996e-05, 8.579737914260477e-05, 9.511697862762958e-05, 0.00010443656356073916, 0.00011375616304576397, 0.00012307576253078878, 0.0001323953620158136, 0.0001417149615008384, 0.0001510345609858632, 0.00016035416047088802, 0.00016967375995591283, 0.00017899335944093764, 0.00018831295892596245, 0.00019763254385907203, 0.00020695214334409684, 0.00021627174282912165, 0.00022559134231414646, 0.00023491094179917127, 0.00024423052673228085, 0.00025355012621730566, 0.00026286972570233047, 0.0002721893251873553, 0.0002815089246723801, 0.0002908285241574049]}, "gradients/lstm.bias_ih_l5": {"_type": "histogram", "values": [1.0, 0.0, 0.0, 0.0, 0.0, 0.0, 0.0, 0.0, 0.0, 0.0, 0.0, 0.0, 1.0, 0.0, 1.0, 0.0, 0.0, 1.0, 0.0, 0.0, 0.0, 0.0, 2.0, 0.0, 2.0, 3.0, 2.0, 4.0, 3.0, 18.0, 31.0, 1030.0, 53.0, 14.0, 15.0, 7.0, 4.0, 2.0, 2.0, 1.0, 1.0, 0.0, 0.0, 1.0, 0.0, 0.0, 0.0, 0.0, 0.0, 0.0, 0.0, 0.0, 0.0, 0.0, 0.0, 0.0, 0.0, 0.0, 0.0, 0.0, 0.0, 0.0, 0.0, 1.0], "bins": [-5.1969873311463743e-05, -5.0333728722762316e-05, -4.869758049608208e-05, -4.7061435907380655e-05, -4.542528768070042e-05, -4.3789143091998994e-05, -4.215299850329757e-05, -4.051685027661733e-05, -3.88807020499371e-05, -3.724455746123567e-05, -3.5608412872534245e-05, -3.397226464585401e-05, -3.2336120057152584e-05, -3.069997183047235e-05, -2.9063827241770923e-05, -2.7427680834080093e-05, -2.5791534426389262e-05, -2.415538801869843e-05, -2.25192416110076e-05, -2.0883097022306174e-05, -1.924694879562594e-05, -1.7610804206924513e-05, -1.597465598024428e-05, -1.4338511391542852e-05, -1.2702366802841425e-05, -1.1066218576161191e-05, -9.430073987459764e-06, -7.79392576077953e-06, -6.157781172078103e-06, -4.521632945397869e-06, -2.8854883566964418e-06, -1.2493401300162077e-06, 3.868008207064122e-07, 2.022945409407839e-06, 3.6590936360880733e-06, 5.2952382247895e-06, 6.931386451469734e-06, 8.567531040171161e-06, 1.0203679266851395e-05, 1.1839823855552822e-05, 1.3475972082233056e-05, 1.5112116670934483e-05, 1.674826125963591e-05, 1.8384409486316144e-05, 2.002055407501757e-05, 2.1656702301697806e-05, 2.3292846890399233e-05, 2.4928993298090063e-05, 2.6565139705780894e-05, 2.8201286113471724e-05, 2.9837432521162555e-05, 3.147358074784279e-05, 3.3109725336544216e-05, 3.474586992524564e-05, 3.638201451394707e-05, 3.8018162740627304e-05, 3.965431096730754e-05, 4.1290455556008965e-05, 4.292660014471039e-05, 4.4562748371390626e-05, 4.619889296009205e-05, 4.783504118677229e-05, 4.9471185775473714e-05, 5.110733400215395e-05, 5.2743478590855375e-05]}, "gradients/lstm.weight_ih_l5": {"_type": "histogram", "values": [82.0, 10.0, 2.0, 1.0, 2.0, 2.0, 23.0, 13.0, 1.0, 0.0, 1.0, 43.0, 5.0, 52.0, 5.0, 57.0, 15.0, 29.0, 34.0, 54.0, 161.0, 207.0, 284.0, 344.0, 684.0, 1703.0, 2931.0, 333075.0, 13648.0, 2798.0, 1619.0, 682.0, 389.0, 307.0, 200.0, 115.0, 42.0, 27.0, 40.0, 21.0, 58.0, 4.0, 52.0, 2.0, 42.0, 1.0, 2.0, 1.0, 17.0, 13.0, 1.0, 0.0, 1.0, 5.0, 7.0, 85.0, 0.0, 0.0, 0.0, 0.0, 0.0, 0.0, 0.0, 1.0], "bins": [-5.322490324033424e-05, -5.132098522153683e-05, -4.941706356476061e-05, -4.75131455459632e-05, -4.5609227527165785e-05, -4.370530950836837e-05, -4.180138785159215e-05, -3.989746983279474e-05, -3.799355181399733e-05, -3.608963015722111e-05, -3.4185712138423696e-05, -3.2281794119626284e-05, -3.0377872462850064e-05, -2.847395444405265e-05, -2.6570034606265835e-05, -2.4666116587468423e-05, -2.2762196749681607e-05, -2.0858278730884194e-05, -1.8954357074107975e-05, -1.7050439055310562e-05, -1.514652103651315e-05, -1.324259937973693e-05, -1.1338681360939518e-05, -9.434763342142105e-06, -7.5308416853658855e-06, -5.626923666568473e-06, -3.7230056477710605e-06, -1.819087628973648e-06, 8.483402780257165e-08, 1.988752046599984e-06, 3.892670065397397e-06, 5.796591722173616e-06, 7.700509740971029e-06, 9.604427759768441e-06, 1.1508349416544661e-05, 1.3412267435342073e-05, 1.5316185454139486e-05, 1.7220107110915706e-05, 1.9124025129713118e-05, 2.102794314851053e-05, 2.2931861167307943e-05, 2.4835782824084163e-05, 2.6739700842881575e-05, 2.8643618861678988e-05, 3.054754051845521e-05, 3.245145853725262e-05, 3.435537655605003e-05, 3.625929821282625e-05, 3.8163216231623664e-05, 4.006713425042108e-05, 4.19710559071973e-05, 4.387497392599471e-05, 4.577889194479212e-05, 4.768281360156834e-05, 4.9586731620365754e-05, 5.1490649639163166e-05, 5.3394571295939386e-05, 5.52984893147368e-05, 5.720240733353421e-05, 5.910632899031043e-05, 6.101024700910784e-05, 6.291416502790526e-05, 6.481808668468148e-05, 6.672200106550008e-05, 6.86259227222763e-05]}, "gradients/lstm.bias_hh_l4": {"_type": "histogram", "values": [1.0, 0.0, 0.0, 0.0, 0.0, 0.0, 0.0, 0.0, 0.0, 0.0, 0.0, 0.0, 0.0, 0.0, 0.0, 0.0, 1.0, 0.0, 1.0, 0.0, 0.0, 0.0, 0.0, 3.0, 3.0, 4.0, 12.0, 15.0, 19.0, 70.0, 1011.0, 31.0, 13.0, 6.0, 1.0, 1.0, 3.0, 1.0, 2.0, 0.0, 0.0, 0.0, 1.0, 0.0, 0.0, 0.0, 0.0, 0.0, 0.0, 0.0, 0.0, 0.0, 0.0, 0.0, 0.0, 0.0, 0.0, 0.0, 0.0, 0.0, 0.0, 0.0, 0.0, 1.0], "bins": [-1.3678665709448978e-05, -1.3225620932644233e-05, -1.2772576155839488e-05, -1.2319531379034743e-05, -1.1866486602229998e-05, -1.1413441825425252e-05, -1.0960397048620507e-05, -1.0507352271815762e-05, -1.0054307495011017e-05, -9.601262718206272e-06, -9.148217941401526e-06, -8.695173164596781e-06, -8.242127478297334e-06, -7.789082701492589e-06, -7.336037924687844e-06, -6.8829931478830986e-06, -6.429948371078353e-06, -5.976903594273608e-06, -5.523858817468863e-06, -5.070814040664118e-06, -4.617769263859373e-06, -4.164724487054627e-06, -3.711679710249882e-06, -3.258634933445137e-06, -2.80558924714569e-06, -2.352544470340945e-06, -1.8994996935361996e-06, -1.4464549167314544e-06, -9.934101399267092e-07, -5.40365363121964e-07, -8.732058631721884e-08, 3.6572419048752636e-07, 8.187689672922716e-07, 1.2718137440970168e-06, 1.724858520901762e-06, 2.177903297706507e-06, 2.6309480745112523e-06, 3.0839928513159975e-06, 3.5370376281207427e-06, 3.990082404925488e-06, 4.443127181730233e-06, 4.89617286802968e-06, 5.349217644834425e-06, 5.8022624216391705e-06, 6.255307198443916e-06, 6.708351975248661e-06, 7.161396752053406e-06, 7.614441528858151e-06, 8.067486305662896e-06, 8.520531082467642e-06, 8.973575859272387e-06, 9.426620636077132e-06, 9.879665412881877e-06, 1.0332711099181324e-05, 1.078575587598607e-05, 1.1238800652790815e-05, 1.169184542959556e-05, 1.2144890206400305e-05, 1.259793498320505e-05, 1.3050979760009795e-05, 1.350402453681454e-05, 1.3957069313619286e-05, 1.4410114090424031e-05, 1.4863158867228776e-05, 1.531620364403352e-05]}, "gradients/lstm.weight_hh_l4": {"_type": "histogram", "values": [3.0, 4.0, 1.0, 3.0, 8.0, 3.0, 5.0, 7.0, 6.0, 5.0, 9.0, 7.0, 9.0, 13.0, 15.0, 11.0, 14.0, 17.0, 15.0, 30.0, 19.0, 21.0, 33.0, 44.0, 39.0, 39.0, 38.0, 36.0, 180.0, 208.0, 2033.0, 355691.0, 661.0, 225.0, 110.0, 38.0, 33.0, 35.0, 49.0, 33.0, 24.0, 39.0, 11.0, 22.0, 19.0, 20.0, 10.0, 10.0, 18.0, 10.0, 12.0, 5.0, 10.0, 5.0, 2.0, 7.0, 1.0, 5.0, 8.0, 4.0, 3.0, 2.0, 1.0, 2.0], "bins": [-0.00016191463510040194, -0.00015674826863687485, -0.00015158188762143254, -0.00014641552115790546, -0.00014124914014246315, -0.00013608277367893606, -0.00013091639266349375, -0.00012575002619996667, -0.00012058365246048197, -0.00011541727872099727, -0.00011025090498151258, -0.00010508453124202788, -9.99181647785008e-05, -9.47517910390161e-05, -8.95854172995314e-05, -8.44190435600467e-05, -7.9252669820562e-05, -7.408629608107731e-05, -6.891992234159261e-05, -6.375354860210791e-05, -5.8587174862623215e-05, -5.342080839909613e-05, -4.8254434659611434e-05, -4.3088060920126736e-05, -3.792169445659965e-05, -3.275531344115734e-05, -2.7588946977630258e-05, -2.2422565962187946e-05, -1.7256199498660862e-05, -1.208981848321855e-05, -6.923452019691467e-06, -1.7570710042491555e-06, 3.4092809073626995e-06, 8.575647370889783e-06, 1.3742028386332095e-05, 1.8908394849859178e-05, 2.407477586530149e-05, 2.9241142328828573e-05, 3.4407523344270885e-05, 3.957388980779797e-05, 4.474027082324028e-05, 4.9906637286767364e-05, 5.507301102625206e-05, 6.023938476573676e-05, 6.540575122926384e-05, 7.057212496874854e-05, 7.573849870823324e-05, 8.090487244771793e-05, 8.607124618720263e-05, 9.123761992668733e-05, 9.640399366617203e-05, 0.00010157036740565673, 0.00010673674114514142, 0.0001119031076086685, 0.0001170694813481532, 0.0001222358550876379, 0.00012740222155116498, 0.0001325686025666073, 0.0001377349835820496, 0.0001429013500455767, 0.00014806771650910378, 0.0001532340975245461, 0.00015840046398807317, 0.00016356684500351548, 0.00016873321146704257]}, "gradients/lstm.bias_ih_l4": {"_type": "histogram", "values": [1.0, 0.0, 0.0, 0.0, 0.0, 0.0, 0.0, 0.0, 0.0, 0.0, 0.0, 0.0, 0.0, 0.0, 0.0, 0.0, 1.0, 0.0, 1.0, 0.0, 0.0, 0.0, 0.0, 3.0, 3.0, 4.0, 12.0, 15.0, 19.0, 70.0, 1011.0, 31.0, 13.0, 6.0, 1.0, 1.0, 3.0, 1.0, 2.0, 0.0, 0.0, 0.0, 1.0, 0.0, 0.0, 0.0, 0.0, 0.0, 0.0, 0.0, 0.0, 0.0, 0.0, 0.0, 0.0, 0.0, 0.0, 0.0, 0.0, 0.0, 0.0, 0.0, 0.0, 1.0], "bins": [-1.367866661894368e-05, -1.3225621842138935e-05, -1.277257706533419e-05, -1.2319532288529444e-05, -1.1866486602229998e-05, -1.1413441825425252e-05, -1.0960397048620507e-05, -1.0507352271815762e-05, -1.0054307495011017e-05, -9.601262718206272e-06, -9.148217941401526e-06, -8.695173164596781e-06, -8.242128387792036e-06, -7.78908361098729e-06, -7.336037924687844e-06, -6.8829931478830986e-06, -6.429948371078353e-06, -5.976903594273608e-06, -5.523858817468863e-06, -5.070814040664118e-06, -4.617769263859373e-06, -4.164723577559926e-06, -3.7116788007551804e-06, -3.2586340239504352e-06, -2.80558924714569e-06, -2.352544470340945e-06, -1.8994996935361996e-06, -1.4464549167314544e-06, -9.934092304320075e-07, -5.403644536272623e-07, -8.731967682251707e-08, 3.6572509998222813e-07, 8.187707862816751e-07, 1.2718155630864203e-06, 1.7248603398911655e-06, 2.1779051166959107e-06, 2.630949893500656e-06, 3.083995579800103e-06, 3.537040356604848e-06, 3.990085133409593e-06, 4.4431299102143385e-06, 4.896174687019084e-06, 5.349219463823829e-06, 5.802264240628574e-06, 6.255309926928021e-06, 6.708354703732766e-06, 7.161399480537511e-06, 7.614444257342257e-06, 8.067489034147002e-06, 8.520533810951747e-06, 8.973578587756492e-06, 9.426623364561237e-06, 9.879668141365983e-06, 1.0332712918170728e-05, 1.0785758604470175e-05, 1.123880338127492e-05, 1.1691848158079665e-05, 1.214489293488441e-05, 1.2597937711689156e-05, 1.3050983397988603e-05, 1.3504028174793348e-05, 1.3957072951598093e-05, 1.4410117728402838e-05, 1.4863162505207583e-05, 1.531620728201233e-05]}, "gradients/lstm.weight_ih_l4": {"_type": "histogram", "values": [9.0, 4.0, 4.0, 3.0, 31.0, 8.0, 5.0, 7.0, 5.0, 2.0, 5.0, 7.0, 2.0, 3.0, 3.0, 4.0, 3.0, 3.0, 4.0, 28.0, 16.0, 69.0, 25.0, 14.0, 79.0, 105.0, 345.0, 435.0, 899.0, 1731.0, 3652.0, 331680.0, 14254.0, 3111.0, 1540.0, 698.0, 488.0, 310.0, 70.0, 76.0, 17.0, 12.0, 67.0, 14.0, 33.0, 5.0, 4.0, 7.0, 7.0, 5.0, 1.0, 2.0, 8.0, 3.0, 4.0, 3.0, 6.0, 3.0, 7.0, 31.0, 6.0, 4.0, 8.0, 6.0], "bins": [-1.5797759260749444e-05, -1.5302786778192967e-05, -1.4807816114625894e-05, -1.4312843632069416e-05, -1.3817872059007641e-05, -1.3322900485945866e-05, -1.2827928003389388e-05, -1.2332956430327613e-05, -1.1837984857265837e-05, -1.1343013284204062e-05, -1.0848041711142287e-05, -1.035306922858581e-05, -9.858097655524034e-06, -9.363126082462259e-06, -8.868153599905781e-06, -8.373182026844006e-06, -7.87821045378223e-06, -7.383238880720455e-06, -6.88826730765868e-06, -6.393294825102203e-06, -5.898323252040427e-06, -5.403351678978652e-06, -4.9083791964221746e-06, -4.413407623360399e-06, -3.918436050298624e-06, -3.4234644772368483e-06, -2.928492904175073e-06, -2.4335204216185957e-06, -1.9385488485568203e-06, -1.4435772754950449e-06, -9.486047929385677e-07, -4.5363412937149405e-07, 4.134017217438668e-08, 5.363126547308639e-07, 1.0312833182979375e-06, 1.5262558008544147e-06, 2.02122737391619e-06, 2.5161989469779655e-06, 3.0111714295344427e-06, 3.506143002596218e-06, 4.0011145756579936e-06, 4.496086148719769e-06, 4.991057721781544e-06, 5.4860302043380216e-06, 5.981001777399797e-06, 6.475973350461572e-06, 6.97094583301805e-06, 7.465917406079825e-06, 7.9608889791416e-06, 8.455860552203376e-06, 8.950832125265151e-06, 9.445804607821628e-06, 9.940776180883404e-06, 1.043574775394518e-05, 1.0930720236501656e-05, 1.1425691809563432e-05, 1.1920663382625207e-05, 1.2415634955686983e-05, 1.2910606528748758e-05, 1.3405579011305235e-05, 1.390055058436701e-05, 1.4395522157428786e-05, 1.4890494639985263e-05, 1.5385465303552337e-05, 1.5880437786108814e-05]}, "gradients/lstm.bias_hh_l3": {"_type": "histogram", "values": [1.0, 0.0, 0.0, 0.0, 0.0, 0.0, 0.0, 0.0, 0.0, 0.0, 0.0, 0.0, 0.0, 0.0, 1.0, 0.0, 0.0, 0.0, 0.0, 0.0, 0.0, 0.0, 0.0, 0.0, 0.0, 1.0, 0.0, 0.0, 0.0, 0.0, 0.0, 0.0, 0.0, 0.0, 0.0, 0.0, 1.0, 1.0, 3.0, 1.0, 3.0, 10.0, 6.0, 17.0, 35.0, 976.0, 66.0, 42.0, 19.0, 13.0, 1.0, 2.0, 0.0, 0.0, 0.0, 0.0, 0.0, 0.0, 0.0, 0.0, 0.0, 0.0, 0.0, 1.0], "bins": [-3.7480225728359073e-05, -3.665727126644924e-05, -3.583431680453941e-05, -3.501136234262958e-05, -3.418841151869856e-05, -3.336545705678873e-05, -3.25425025948789e-05, -3.1719548132969067e-05, -3.0896593671059236e-05, -3.007364102813881e-05, -2.9250688385218382e-05, -2.842773392330855e-05, -2.760477946139872e-05, -2.678182499948889e-05, -2.5958872356568463e-05, -2.5135917894658633e-05, -2.4312965251738206e-05, -2.3490010789828375e-05, -2.2667056327918544e-05, -2.1844103684998117e-05, -2.1021149223088287e-05, -2.0198194761178456e-05, -1.937524211825803e-05, -1.85522876563482e-05, -1.7729333194438368e-05, -1.690638055151794e-05, -1.608342608960811e-05, -1.526047162769828e-05, -1.4437518984777853e-05, -1.3614564522868022e-05, -1.2791610060958192e-05, -1.1968657418037765e-05, -1.1145702046633232e-05, -1.0322747584723402e-05, -9.499794941802975e-06, -8.676840479893144e-06, -7.853886017983314e-06, -7.030933375062887e-06, -6.207978913153056e-06, -5.3850244512432255e-06, -4.5620718083227985e-06, -3.739117346412968e-06, -2.9161628845031373e-06, -2.0932102415827103e-06, -1.2702557796728797e-06, -4.4730131776304916e-07, 3.7565132515737787e-07, 1.1986057870672084e-06, 2.0215593394823372e-06, 2.844512891897466e-06, 3.6674673538072966e-06, 4.490420906222425e-06, 5.313374458637554e-06, 6.136328920547385e-06, 6.9592824729625136e-06, 7.782236025377642e-06, 8.605189577792771e-06, 9.428144039702602e-06, 1.025109759211773e-05, 1.107405114453286e-05, 1.189700560644269e-05, 1.2719959158857819e-05, 1.3542912711272947e-05, 1.4365867173182778e-05, 1.5188820725597907e-05]}, "gradients/lstm.weight_hh_l3": {"_type": "histogram", "values": [2.0, 1.0, 3.0, 2.0, 3.0, 6.0, 0.0, 2.0, 2.0, 5.0, 1.0, 4.0, 4.0, 4.0, 6.0, 11.0, 3.0, 5.0, 5.0, 7.0, 3.0, 5.0, 8.0, 1.0, 4.0, 10.0, 28.0, 15.0, 36.0, 60.0, 69.0, 1539.0, 357319.0, 504.0, 87.0, 42.0, 41.0, 15.0, 30.0, 5.0, 7.0, 7.0, 2.0, 10.0, 5.0, 2.0, 3.0, 5.0, 8.0, 7.0, 6.0, 8.0, 7.0, 2.0, 5.0, 3.0, 3.0, 1.0, 0.0, 4.0, 2.0, 0.0, 4.0, 2.0], "bins": [-0.00020100946130696684, -0.0001948068820638582, -0.0001886043173726648, -0.00018240173812955618, -0.00017619915888644755, -0.00016999657964333892, -0.00016379401495214552, -0.0001575914357090369, -0.00015138887101784348, -0.00014518629177473485, -0.00013898371253162622, -0.0001327811332885176, -0.0001265785685973242, -0.00012037598935421556, -0.00011417341738706455, -0.00010797083814395592, -0.0001017682661768049, -9.556569420965388e-05, -8.936311496654525e-05, -8.316054299939424e-05, -7.695796375628561e-05, -7.07553990650922e-05, -6.455281982198358e-05, -5.8350240578874946e-05, -5.2147675887681544e-05, -4.5945096644572914e-05, -3.9742517401464283e-05, -3.353993815835565e-05, -2.733737346716225e-05, -2.113479422405362e-05, -1.4932214980944991e-05, -8.72965028975159e-06, -2.5270564947277308e-06, 3.6755227483808994e-06, 9.878087439574301e-06, 1.608066668268293e-05, 2.228324592579156e-05, 2.8485810616984963e-05, 3.4688389860093594e-05, 4.0890969103202224e-05, 4.7093548346310854e-05, 5.3296113037504256e-05, 5.9498692280612886e-05, 6.570127152372152e-05, 7.190383621491492e-05, 7.810641545802355e-05, 8.430898742517456e-05, 9.05115666682832e-05, 9.671413863543421e-05, 0.00010291671060258523, 0.00010911928984569386, 0.00011532186181284487, 0.0001215244410559535, 0.00012772702029906213, 0.00013392958499025553, 0.00014013216423336416, 0.00014633472892455757, 0.0001525373081676662, 0.00015873988741077483, 0.00016494246665388346, 0.00017114503134507686, 0.0001773476105881855, 0.00018355018983129412, 0.00018975275452248752, 0.00019595533376559615]}, "gradients/lstm.bias_ih_l3": {"_type": "histogram", "values": [1.0, 0.0, 0.0, 0.0, 0.0, 0.0, 0.0, 0.0, 0.0, 0.0, 0.0, 0.0, 0.0, 0.0, 1.0, 0.0, 0.0, 0.0, 0.0, 0.0, 0.0, 0.0, 0.0, 0.0, 0.0, 1.0, 0.0, 0.0, 0.0, 0.0, 0.0, 0.0, 0.0, 0.0, 0.0, 0.0, 1.0, 1.0, 3.0, 1.0, 3.0, 10.0, 6.0, 17.0, 35.0, 976.0, 66.0, 42.0, 19.0, 13.0, 1.0, 2.0, 0.0, 0.0, 0.0, 0.0, 0.0, 0.0, 0.0, 0.0, 0.0, 0.0, 0.0, 1.0], "bins": [-3.7480225728359073e-05, -3.665727126644924e-05, -3.583431680453941e-05, -3.501136598060839e-05, -3.418841151869856e-05, -3.336545705678873e-05, -3.25425025948789e-05, -3.1719548132969067e-05, -3.089659730903804e-05, -3.0073642847128212e-05, -2.9250688385218382e-05, -2.842773392330855e-05, -2.760477946139872e-05, -2.6781826818478294e-05, -2.5958872356568463e-05, -2.5135919713648036e-05, -2.4312965251738206e-05, -2.3490010789828375e-05, -2.2667058146907948e-05, -2.1844103684998117e-05, -2.102115104207769e-05, -2.019819658016786e-05, -1.937524211825803e-05, -1.8552289475337602e-05, -1.772933501342777e-05, -1.690638055151794e-05, -1.6083427908597514e-05, -1.5260473446687683e-05, -1.4437518984777853e-05, -1.3614566341857426e-05, -1.2791611879947595e-05, -1.1968659237027168e-05, -1.1145703865622636e-05, -1.0322749403712805e-05, -9.499796760792378e-06, -8.676842298882548e-06, -7.85388965596212e-06, -7.03093519405229e-06, -6.20798073214246e-06, -5.385028089222033e-06, -4.562073627312202e-06, -3.7391191654023714e-06, -2.9161665224819444e-06, -2.093212060572114e-06, -1.2702575986622833e-06, -4.4730495574185625e-07, 3.756495061679743e-07, 1.1986030585831031e-06, 2.021556610998232e-06, 2.8445101634133607e-06, 3.6674637158284895e-06, 4.49041817773832e-06, 5.313371730153449e-06, 6.136325282568578e-06, 6.959279744478408e-06, 7.782233296893537e-06, 8.605186849308666e-06, 9.428140401723795e-06, 1.0251094863633625e-05, 1.1074048416048754e-05, 1.1897001968463883e-05, 1.2719955520879012e-05, 1.354290907329414e-05, 1.4365863535203971e-05, 1.51888170876191e-05]}, "gradients/lstm.weight_ih_l3": {"_type": "histogram", "values": [16.0, 0.0, 0.0, 0.0, 0.0, 0.0, 1.0, 7.0, 2.0, 1.0, 13.0, 3.0, 0.0, 0.0, 1.0, 8.0, 1.0, 1.0, 17.0, 16.0, 2.0, 11.0, 3.0, 2.0, 1.0, 16.0, 28.0, 103.0, 113.0, 722.0, 1565.0, 8190.0, 346129.0, 1877.0, 793.0, 122.0, 97.0, 28.0, 18.0, 2.0, 2.0, 7.0, 4.0, 1.0, 17.0, 17.0, 0.0, 1.0, 2.0, 1.0, 0.0, 1.0, 7.0, 10.0, 0.0, 1.0, 2.0, 0.0, 0.0, 1.0, 1.0, 0.0, 0.0, 16.0], "bins": [-3.7591016734950244e-05, -3.641803050413728e-05, -3.5245040635345504e-05, -3.407205440453254e-05, -3.289906453574076e-05, -3.1726078304927796e-05, -3.055308843613602e-05, -2.9380102205323055e-05, -2.8207114155520685e-05, -2.7034126105718315e-05, -2.5861138055915944e-05, -2.4688150006113574e-05, -2.3515163775300607e-05, -2.2342173906508833e-05, -2.1169187675695866e-05, -1.9996199625893496e-05, -1.8823211576091126e-05, -1.7650223526288755e-05, -1.6477235476486385e-05, -1.5304247426684014e-05, -1.4131259376881644e-05, -1.2958273146068677e-05, -1.1785285096266307e-05, -1.0612297046463937e-05, -9.439308996661566e-06, -8.266320946859196e-06, -7.0933328970568255e-06, -5.920344847254455e-06, -4.747358616441488e-06, -3.5743687476497144e-06, -2.4013825168367475e-06, -1.2283926480449736e-06, -5.540641723200679e-08, 1.11757981358096e-06, 2.290569682372734e-06, 3.4635559131857008e-06, 4.636545781977475e-06, 5.8095320127904415e-06, 6.982520062592812e-06, 8.155508112395182e-06, 9.328496162197553e-06, 1.0501484211999923e-05, 1.1674472261802293e-05, 1.2847460311604664e-05, 1.402044654241763e-05, 1.5193434592220001e-05, 1.636642264202237e-05, 1.753941069182474e-05, 1.8712398741627112e-05, 1.9885386791429482e-05, 2.1058374841231853e-05, 2.223136107204482e-05, 2.3404350940836594e-05, 2.457733717164956e-05, 2.575032522145193e-05, 2.69233132712543e-05, 2.809630132105667e-05, 2.9269289370859042e-05, 3.0442277420661412e-05, 3.161526547046378e-05, 3.278825170127675e-05, 3.396124157006852e-05, 3.513422780088149e-05, 3.6307217669673264e-05, 3.748020390048623e-05]}, "gradients/lstm.bias_hh_l2": {"_type": "histogram", "values": [1.0, 0.0, 0.0, 0.0, 0.0, 1.0, 0.0, 1.0, 1.0, 3.0, 1.0, 1.0, 3.0, 0.0, 2.0, 10.0, 1167.0, 3.0, 1.0, 1.0, 0.0, 0.0, 0.0, 0.0, 0.0, 0.0, 0.0, 0.0, 0.0, 0.0, 1.0, 1.0, 0.0, 0.0, 0.0, 0.0, 0.0, 1.0, 0.0, 0.0, 0.0, 0.0, 0.0, 0.0, 0.0, 0.0, 0.0, 0.0, 0.0, 0.0, 0.0, 0.0, 0.0, 0.0, 0.0, 0.0, 0.0, 0.0, 0.0, 0.0, 0.0, 0.0, 0.0, 1.0], "bins": [-7.499410230593639e-07, -7.035702083157958e-07, -6.571993935722276e-07, -6.108285788286594e-07, -5.644577640850912e-07, -5.18086949341523e-07, -4.7171607775453595e-07, -4.2534526301096776e-07, -3.7897444826739957e-07, -3.326036335238314e-07, -2.862328187802632e-07, -2.39862004036695e-07, -1.9349113244970795e-07, -1.4712031770613976e-07, -1.0074950296257157e-07, -5.437868821900338e-08, -8.00787347543519e-09, 3.8362941268133e-08, 8.473375601170119e-08, 1.3110457075526938e-07, 1.7747538549883757e-07, 2.2384620024240576e-07, 2.7021701498597395e-07, 3.1658782972954214e-07, 3.6295875815994805e-07, 4.0932957290351624e-07, 4.557003876470844e-07, 5.020712023906526e-07, 5.484420171342208e-07, 5.94812831877789e-07, 6.411836466213572e-07, 6.875544613649254e-07, 7.339253897953313e-07, 7.802962045388995e-07, 8.266670192824677e-07, 8.730378340260359e-07, 9.19408648769604e-07, 9.657794635131722e-07, 1.0121502782567404e-06, 1.0585210930003086e-06, 1.1048919077438768e-06, 1.1512628361742827e-06, 1.197633650917851e-06, 1.244004465661419e-06, 1.2903752804049873e-06, 1.3367460951485555e-06, 1.3831169098921237e-06, 1.4294877246356918e-06, 1.47585853937926e-06, 1.5222293541228282e-06, 1.5686001688663964e-06, 1.6149709836099646e-06, 1.6613417983535328e-06, 1.7077127267839387e-06, 1.754083541527507e-06, 1.800454356271075e-06, 1.8468251710146433e-06, 1.8931959857582115e-06, 1.9395668005017797e-06, 1.985937615245348e-06, 2.032308429988916e-06, 2.0786792447324842e-06, 2.1250500594760524e-06, 2.1714208742196206e-06, 2.217791688963189e-06]}, "gradients/lstm.weight_hh_l2": {"_type": "histogram", "values": [1.0, 0.0, 4.0, 1.0, 1.0, 2.0, 1.0, 0.0, 0.0, 1.0, 0.0, 1.0, 1.0, 0.0, 3.0, 2.0, 19.0, 10.0, 6.0, 27.0, 22.0, 28.0, 30.0, 46.0, 61.0, 90.0, 149.0, 131.0, 358080.0, 807.0, 115.0, 90.0, 58.0, 36.0, 60.0, 10.0, 17.0, 24.0, 22.0, 6.0, 16.0, 3.0, 7.0, 1.0, 0.0, 0.0, 0.0, 1.0, 1.0, 0.0, 0.0, 3.0, 0.0, 0.0, 0.0, 5.0, 0.0, 0.0, 0.0, 0.0, 0.0, 0.0, 0.0, 1.0], "bins": [-2.4527291770937154e-06, -2.367902879996109e-06, -2.2830765828985022e-06, -2.1982502858008957e-06, -2.1134237613296136e-06, -2.028597464232007e-06, -1.9437711671344005e-06, -1.8589448700367939e-06, -1.7741185729391873e-06, -1.6892922758415807e-06, -1.6044659787439741e-06, -1.5196395679595298e-06, -1.4348132708619232e-06, -1.3499869737643166e-06, -1.2651605629798723e-06, -1.1803342658822658e-06, -1.0955079687846592e-06, -1.0106816716870526e-06, -9.25855374589446e-07, -8.410289638050017e-07, -7.562026667073951e-07, -6.713763696097885e-07, -5.865499588253442e-07, -5.017236617277376e-07, -4.1689736463013105e-07, -3.3207106753252447e-07, -2.472447704349179e-07, -1.624184733373113e-07, -7.759194886602927e-08, 7.2343482315773144e-09, 9.20606453291839e-08, 1.7688694242679048e-07, 2.617130121507216e-07, 3.465393092483282e-07, 4.313656063459348e-07, 5.161919034435414e-07, 6.01018200541148e-07, 6.8584472501243e-07, 7.706710221100366e-07, 8.554973192076432e-07, 9.403236163052497e-07, 1.0251499134028563e-06, 1.109976210500463e-06, 1.1948026212849072e-06, 1.2796289183825138e-06, 1.3644552154801204e-06, 1.4492816262645647e-06, 1.5341079233621713e-06, 1.6189342204597779e-06, 1.7037605175573844e-06, 1.788586814654991e-06, 1.8734132254394353e-06, 1.958239408850204e-06, 2.0430657059478108e-06, 2.127892230419093e-06, 2.2127185275166994e-06, 2.297544824614306e-06, 2.3823711217119126e-06, 2.467197418809519e-06, 2.5520237159071257e-06, 2.6368502403784078e-06, 2.7216765374760143e-06, 2.806502834573621e-06, 2.8913291316712275e-06, 2.976155428768834e-06]}, "gradients/lstm.bias_ih_l2": {"_type": "histogram", "values": [1.0, 0.0, 0.0, 0.0, 0.0, 1.0, 0.0, 1.0, 1.0, 3.0, 1.0, 1.0, 3.0, 0.0, 2.0, 10.0, 1167.0, 3.0, 1.0, 1.0, 0.0, 0.0, 0.0, 0.0, 0.0, 0.0, 0.0, 0.0, 0.0, 0.0, 1.0, 1.0, 0.0, 0.0, 0.0, 0.0, 0.0, 1.0, 0.0, 0.0, 0.0, 0.0, 0.0, 0.0, 0.0, 0.0, 0.0, 0.0, 0.0, 0.0, 0.0, 0.0, 0.0, 0.0, 0.0, 0.0, 0.0, 0.0, 0.0, 0.0, 0.0, 0.0, 0.0, 1.0], "bins": [-7.499410230593639e-07, -7.035702083157958e-07, -6.571993935722276e-07, -6.108285219852405e-07, -5.644577072416723e-07, -5.180868924981041e-07, -4.717160493328265e-07, -4.253452061675489e-07, -3.789743914239807e-07, -3.326035766804125e-07, -2.862327335151349e-07, -2.398618903498573e-07, -1.934910756062891e-07, -1.471202608627209e-07, -1.0074938927573385e-07, -5.437857453216566e-08, -8.007759788597468e-09, 3.836305495497072e-08, 8.473386969853891e-08, 1.3110474128552596e-07, 1.7747555602909415e-07, 2.238464276160812e-07, 2.702172423596494e-07, 3.165880571032176e-07, 3.6295887184678577e-07, 4.0932968659035396e-07, 4.5570050133392215e-07, 5.020713160774903e-07, 5.484422445078962e-07, 5.948130592514644e-07, 6.411838739950326e-07, 6.875546887386008e-07, 7.339253897953313e-07, 7.802962045388995e-07, 8.266670192824677e-07, 8.730378340260359e-07, 9.19408648769604e-07, 9.6577957720001e-07, 1.0121503919435781e-06, 1.0585212066871463e-06, 1.1048920214307145e-06, 1.1512628361742827e-06, 1.197633650917851e-06, 1.244004465661419e-06, 1.290375394091825e-06, 1.3367462088353932e-06, 1.3831170235789614e-06, 1.4294878383225296e-06, 1.4758586530660978e-06, 1.522229467809666e-06, 1.5686002825532341e-06, 1.6149710972968023e-06, 1.6613419120403705e-06, 1.7077127267839387e-06, 1.7540836552143446e-06, 1.8004544699579128e-06, 1.846825284701481e-06, 1.8931960994450492e-06, 1.939567027875455e-06, 1.9859378426190233e-06, 2.0323086573625915e-06, 2.0786794721061597e-06, 2.125050286849728e-06, 2.171421101593296e-06, 2.2177919163368642e-06]}, "gradients/lstm.weight_ih_l2": {"_type": "histogram", "values": [30.0, 1.0, 2.0, 23.0, 2.0, 3.0, 11.0, 0.0, 1.0, 2.0, 0.0, 1.0, 1.0, 4.0, 56.0, 8.0, 13.0, 101.0, 69.0, 34.0, 111.0, 96.0, 238.0, 246.0, 326.0, 354457.0, 2771.0, 350.0, 237.0, 262.0, 97.0, 103.0, 30.0, 55.0, 114.0, 15.0, 7.0, 48.0, 3.0, 2.0, 3.0, 0.0, 0.0, 0.0, 0.0, 12.0, 2.0, 1.0, 10.0, 1.0, 0.0, 39.0, 0.0, 0.0, 0.0, 1.0, 0.0, 0.0, 0.0, 0.0, 0.0, 0.0, 0.0, 1.0], "bins": [-2.21780260289961e-06, -2.132431745849317e-06, -2.047060888799024e-06, -1.9616900317487307e-06, -1.876319402072113e-06, -1.7909485450218199e-06, -1.7055776879715268e-06, -1.6202068309212336e-06, -1.5348360875577782e-06, -1.4494653441943228e-06, -1.3640944871440297e-06, -1.2787236300937366e-06, -1.1933527730434434e-06, -1.107982029679988e-06, -1.022611172629695e-06, -9.372404292662395e-07, -8.518695722159464e-07, -7.664987151656533e-07, -6.811279718021979e-07, -5.957571147519047e-07, -5.103863713884493e-07, -4.250155143381562e-07, -3.396446572878631e-07, -2.5427380023756996e-07, -1.6890294318727683e-07, -8.353231351065915e-08, 1.8385435396339744e-09, 8.72094005899271e-08, 1.7258025764022022e-07, 2.5795111469051335e-07, 3.4332174436713103e-07, 4.2869260141742416e-07, 5.140634584677173e-07, 5.994343155180104e-07, 6.848051725683035e-07, 7.701758022449212e-07, 8.555466592952143e-07, 9.409175163455075e-07, 1.0262883733958006e-06, 1.1116592304460937e-06, 1.1970298601227114e-06, 1.2824007171730045e-06, 1.3677715742232976e-06, 1.4531424312735908e-06, 1.538513288323884e-06, 1.6238840316873393e-06, 1.7092548887376324e-06, 1.7946256321010878e-06, 1.879996489151381e-06, 1.965367346201674e-06, 2.050738203251967e-06, 2.136108832928585e-06, 2.221479689978878e-06, 2.306850547029171e-06, 2.3922214040794643e-06, 2.4775922611297574e-06, 2.562962890806375e-06, 2.648333747856668e-06, 2.7337046049069613e-06, 2.8190754619572544e-06, 2.9044463190075476e-06, 2.9898169486841653e-06, 3.0751878057344584e-06, 3.1605586627847515e-06, 3.2459295198350446e-06]}, "gradients/lstm.bias_hh_l1": {"_type": "histogram", "values": [1.0, 0.0, 1.0, 0.0, 0.0, 0.0, 0.0, 0.0, 0.0, 0.0, 0.0, 0.0, 0.0, 0.0, 0.0, 0.0, 0.0, 1.0, 0.0, 0.0, 0.0, 0.0, 0.0, 2.0, 0.0, 1.0, 0.0, 3.0, 6.0, 7.0, 1134.0, 21.0, 11.0, 3.0, 3.0, 0.0, 1.0, 1.0, 0.0, 0.0, 0.0, 0.0, 0.0, 0.0, 1.0, 1.0, 0.0, 0.0, 0.0, 0.0, 0.0, 0.0, 0.0, 0.0, 0.0, 0.0, 1.0, 0.0, 0.0, 0.0, 0.0, 0.0, 0.0, 1.0], "bins": [-7.226760345702132e-08, -6.991636070097229e-08, -6.756512505035062e-08, -6.521388229430158e-08, -6.286263953825255e-08, -6.051139678220352e-08, -5.8160161131581845e-08, -5.580891837553281e-08, -5.345767917219746e-08, -5.1106439968862105e-08, -4.875519721281307e-08, -4.640395800947772e-08, -4.4052718806142366e-08, -4.1701476050093333e-08, -3.935023684675798e-08, -3.699899409070895e-08, -3.4647754887373594e-08, -3.229651568403824e-08, -2.994527292798921e-08, -2.7594033724653855e-08, -2.5242790968604822e-08, -2.289155176526947e-08, -2.0540312561934115e-08, -1.8189069805885083e-08, -1.583783060254973e-08, -1.3486591399214376e-08, -1.1135348643165344e-08, -8.784105887116311e-09, -6.432870236494637e-09, -4.081627480445604e-09, -1.730384724396572e-09, 6.208509262251027e-10, 2.9721007877014927e-09, 5.323343543750525e-09, 7.6745791943722e-09, 1.0025821950421232e-08, 1.2377064706470264e-08, 1.4728300357091939e-08, 1.707954311314097e-08, 1.9430785869190004e-08, 2.1782025072525357e-08, 2.413326427586071e-08, 2.6484507031909743e-08, 2.8835746235245097e-08, 3.118698543858045e-08, 3.353822819462948e-08, 3.5889467397964836e-08, 3.824071015401387e-08, 4.059194935734922e-08, 4.2943188560684575e-08, 4.529443131673361e-08, 4.764567052006896e-08, 4.9996913276117994e-08, 5.234815247945335e-08, 5.46993916827887e-08, 5.705063443883773e-08, 5.9401873642173086e-08, 6.175311284550844e-08, 6.410435560155747e-08, 6.64555983576065e-08, 6.880683400822818e-08, 7.115807676427721e-08, 7.350931952032624e-08, 7.586055517094792e-08, 7.821179792699695e-08]}, "gradients/lstm.weight_hh_l1": {"_type": "histogram", "values": [2.0, 0.0, 0.0, 0.0, 0.0, 2.0, 1.0, 3.0, 2.0, 5.0, 0.0, 3.0, 7.0, 28.0, 17.0, 61.0, 57.0, 14.0, 82.0, 30.0, 19.0, 20.0, 35.0, 9.0, 32.0, 84.0, 62.0, 39.0, 42.0, 194.0, 232.0, 610.0, 2154.0, 352132.0, 2386.0, 561.0, 237.0, 170.0, 42.0, 78.0, 45.0, 70.0, 47.0, 9.0, 17.0, 25.0, 21.0, 17.0, 80.0, 12.0, 40.0, 84.0, 17.0, 34.0, 7.0, 3.0, 3.0, 4.0, 4.0, 4.0, 1.0, 1.0, 1.0, 2.0], "bins": [-1.3273341892272583e-07, -1.287736637323178e-07, -1.2481390854190977e-07, -1.2085416756235645e-07, -1.1689441237194842e-07, -1.1293465718154039e-07, -1.0897490909655971e-07, -1.0501516101157904e-07, -1.0105540582117101e-07, -9.709565063076298e-08, -9.31359025457823e-08, -8.917615446080163e-08, -8.52163992703936e-08, -8.125664407998556e-08, -7.729689599500489e-08, -7.333714791002421e-08, -6.937739271961618e-08, -6.541763752920815e-08, -6.145788944422748e-08, -5.74981413592468e-08, -5.353838616883877e-08, -4.957863097843074e-08, -4.5618882893450063e-08, -4.165913480846939e-08, -3.769937961806136e-08, -3.3739624427653325e-08, -2.977987634267265e-08, -2.5820128257691977e-08, -2.1860373067283945e-08, -1.7900617876875913e-08, -1.3940869791895238e-08, -9.981121706914564e-09, -6.021380727361247e-09, -2.0616255369532155e-09, 1.898122548027459e-09, 5.857870633008133e-09, 9.817625823416165e-09, 1.3777381013824197e-08, 1.773712909880487e-08, 2.1696877183785546e-08, 2.5656632374193578e-08, 2.961638756460161e-08, 3.3576135649582284e-08, 3.753588373456296e-08, 4.149563892497099e-08, 4.545539411537902e-08, 4.9415142200359696e-08, 5.337489028534037e-08, 5.73346454757484e-08, 6.129440066615643e-08, 6.525414875113711e-08, 6.921389683611778e-08, 7.317365202652582e-08, 7.713340721693385e-08, 8.109315530191452e-08, 8.50529033868952e-08, 8.901265857730323e-08, 9.297241376771126e-08, 9.693216185269193e-08, 1.0089190993767261e-07, 1.0485166512808064e-07, 1.0881142031848867e-07, 1.1277116840346935e-07, 1.1673091648845002e-07, 1.2069067167885805e-07]}, "gradients/lstm.bias_ih_l1": {"_type": "histogram", "values": [1.0, 0.0, 1.0, 0.0, 0.0, 0.0, 0.0, 0.0, 0.0, 0.0, 0.0, 0.0, 0.0, 0.0, 0.0, 0.0, 0.0, 1.0, 0.0, 0.0, 0.0, 0.0, 0.0, 2.0, 0.0, 1.0, 0.0, 3.0, 6.0, 7.0, 1134.0, 21.0, 11.0, 3.0, 3.0, 0.0, 1.0, 1.0, 0.0, 0.0, 0.0, 0.0, 0.0, 0.0, 1.0, 1.0, 0.0, 0.0, 0.0, 0.0, 0.0, 0.0, 0.0, 0.0, 0.0, 0.0, 1.0, 0.0, 0.0, 0.0, 0.0, 0.0, 0.0, 1.0], "bins": [-7.226761056244868e-08, -6.991636780639965e-08, -6.756512505035062e-08, -6.521388939972894e-08, -6.286264664367991e-08, -6.051140388763088e-08, -5.8160164684295523e-08, -5.580892548096017e-08, -5.345768272491114e-08, -5.1106439968862105e-08, -4.875520076552675e-08, -4.64039615621914e-08, -4.4052718806142366e-08, -4.1701476050093333e-08, -3.935023684675798e-08, -3.6998997643422626e-08, -3.4647754887373594e-08, -3.229651213132456e-08, -2.994527292798921e-08, -2.7594033724653855e-08, -2.5242790968604822e-08, -2.289154821255579e-08, -2.0540309009220437e-08, -1.8189069805885083e-08, -1.583782704983605e-08, -1.3486584293787018e-08, -1.1135341537737986e-08, -8.784105887116311e-09, -6.432863131067279e-09, -4.081620375018247e-09, -1.730384724396572e-09, 6.208580316524603e-10, 2.9721007877014927e-09, 5.323343543750525e-09, 7.674586299799557e-09, 1.0025821950421232e-08, 1.2377064706470264e-08, 1.4728307462519297e-08, 1.707954311314097e-08, 1.9430785869190004e-08, 2.1782028625239036e-08, 2.413327138128807e-08, 2.6484510584623422e-08, 2.8835749787958775e-08, 3.118699254400781e-08, 3.353823530005684e-08, 3.5889474503392194e-08, 3.824071370672755e-08, 4.059195646277658e-08, 4.294319921882561e-08, 4.5294438422160965e-08, 4.764567762549632e-08, 4.999692038154535e-08, 5.2348163137594383e-08, 5.469940234092974e-08, 5.705064154426509e-08, 5.940188430031412e-08, 6.175312705636316e-08, 6.410436981241219e-08, 6.645560546303386e-08, 6.88068482190829e-08, 7.115809097513193e-08, 7.35093266257536e-08, 7.586056938180263e-08, 7.821181213785167e-08]}, "gradients/lstm.weight_ih_l1": {"_type": "histogram", "values": [1.0, 43.0, 12.0, 51.0, 12.0, 44.0, 7.0, 7.0, 54.0, 22.0, 6.0, 2.0, 5.0, 7.0, 6.0, 7.0, 4.0, 44.0, 52.0, 66.0, 36.0, 24.0, 7.0, 12.0, 16.0, 178.0, 165.0, 223.0, 462.0, 964.0, 2550.0, 350901.0, 1940.0, 871.0, 240.0, 114.0, 154.0, 149.0, 7.0, 15.0, 20.0, 18.0, 65.0, 27.0, 78.0, 2.0, 1.0, 0.0, 7.0, 3.0, 8.0, 1.0, 13.0, 20.0, 40.0, 4.0, 47.0, 23.0, 16.0, 73.0, 11.0, 38.0, 3.0, 2.0], "bins": [-8.171721788130526e-08, -7.911201294064085e-08, -7.65068151054038e-08, -7.39016101647394e-08, -7.129641232950235e-08, -6.869120738883794e-08, -6.608600244817353e-08, -6.348080461293648e-08, -6.087560677769943e-08, -5.8270401837035024e-08, -5.5665200449084296e-08, -5.305999906113357e-08, -5.045479412046916e-08, -4.784959273251843e-08, -4.52443913445677e-08, -4.2639189956616974e-08, -4.0033988568666246e-08, -3.742878718071552e-08, -3.482358579276479e-08, -3.221838440481406e-08, -2.961318301686333e-08, -2.7007978076198924e-08, -2.4402776688248196e-08, -2.1797575300297467e-08, -1.919237035963306e-08, -1.658717252439601e-08, -1.3981967583731603e-08, -1.1376769748494553e-08, -8.771564807830146e-09, -6.166366972593096e-09, -3.5611620319286885e-09, -9.559641966916388e-10, 1.6492478494001261e-09, 4.2544527900645335e-09, 6.859650625301583e-09, 9.46485556596599e-09, 1.207005340120304e-08, 1.4675258341867448e-08, 1.7280456177104497e-08, 1.9885661117768905e-08, 2.2490858953005954e-08, 2.5096063893670362e-08, 2.770126528162109e-08, 3.030646666957182e-08, 3.2911671610236226e-08, 3.5516872998186955e-08, 3.812207438613768e-08, 4.072727577408841e-08, 4.333247716203914e-08, 4.593767854998987e-08, 4.85428799379406e-08, 5.1148081325891326e-08, 5.3753282713842054e-08, 5.635848765450646e-08, 5.896368904245719e-08, 6.156889043040792e-08, 6.417408826564497e-08, 6.677929320630938e-08, 6.938449814697378e-08, 7.198969598221083e-08, 7.459490092287524e-08, 7.720009875811229e-08, 7.98053036987767e-08, 8.241050153401375e-08, 8.501570647467815e-08]}, "gradients/lstm.bias_hh_l0": {"_type": "histogram", "values": [1.0, 0.0, 0.0, 0.0, 0.0, 0.0, 0.0, 2.0, 1.0, 1.0, 2.0, 1.0, 1.0, 2.0, 5.0, 10.0, 51.0, 1067.0, 30.0, 16.0, 4.0, 2.0, 2.0, 0.0, 0.0, 0.0, 0.0, 0.0, 0.0, 0.0, 0.0, 1.0, 0.0, 0.0, 0.0, 0.0, 0.0, 0.0, 0.0, 0.0, 0.0, 0.0, 0.0, 0.0, 0.0, 0.0, 0.0, 0.0, 0.0, 0.0, 0.0, 0.0, 0.0, 0.0, 0.0, 0.0, 0.0, 0.0, 0.0, 0.0, 0.0, 0.0, 0.0, 1.0], "bins": [-1.3910479879086779e-08, -1.3107330332218226e-08, -1.2304181673528092e-08, -1.1501032126659538e-08, -1.0697883467969405e-08, -9.894733921100851e-09, -9.091584374232298e-09, -8.288434827363744e-09, -7.48528616867361e-09, -6.682137065894267e-09, -5.878987963114923e-09, -5.07583841624637e-09, -4.2726888693778164e-09, -3.4695402106876827e-09, -2.6663906638191293e-09, -1.8632420051289955e-09, -1.060092458260442e-09, -2.5694291139188863e-10, 5.462057472982451e-10, 1.3493544059883789e-09, 2.1525039528569323e-09, 2.9556534997254857e-09, 3.758803046594039e-09, 4.561952593462593e-09, 5.365102140331146e-09, 6.16824991084286e-09, 6.9713994577114136e-09, 7.774549004579967e-09, 8.57769855144852e-09, 9.380848098317074e-09, 1.0183995868828788e-08, 1.0987145415697341e-08, 1.1790294962565895e-08, 1.2593444509434448e-08, 1.3396594056303002e-08, 1.4199741826814716e-08, 1.500289137368327e-08, 1.5806040920551823e-08, 1.6609190467420376e-08, 1.741234001428893e-08, 1.8215487784800644e-08, 1.9018637331669197e-08, 1.982178687853775e-08, 2.0624936425406304e-08, 2.1428085972274857e-08, 2.223123551914341e-08, 2.3034385066011964e-08, 2.3837532836523678e-08, 2.4640682383392232e-08, 2.5443831930260785e-08, 2.62469797007725e-08, 2.7050131023997892e-08, 2.7853278794509606e-08, 2.865642834137816e-08, 2.9459577888246713e-08, 3.026272565875843e-08, 3.106587698198382e-08, 3.1869024752495534e-08, 3.267217607572093e-08, 3.347532384623264e-08, 3.4278471616744355e-08, 3.508162293996975e-08, 3.588477071048146e-08, 3.6687922033706855e-08, 3.749106980421857e-08]}, "gradients/lstm.weight_hh_l0": {"_type": "histogram", "values": [2.0, 1.0, 2.0, 6.0, 5.0, 7.0, 2.0, 8.0, 3.0, 2.0, 8.0, 8.0, 7.0, 9.0, 16.0, 15.0, 12.0, 16.0, 15.0, 15.0, 22.0, 33.0, 32.0, 54.0, 71.0, 79.0, 72.0, 57.0, 84.0, 177.0, 752.0, 347392.0, 9638.0, 589.0, 168.0, 61.0, 68.0, 56.0, 87.0, 76.0, 41.0, 30.0, 26.0, 22.0, 18.0, 12.0, 7.0, 17.0, 11.0, 13.0, 11.0, 9.0, 11.0, 6.0, 4.0, 8.0, 6.0, 3.0, 7.0, 3.0, 5.0, 0.0, 1.0, 2.0], "bins": [-1.4861788599773718e-07, -1.439607189013259e-07, -1.393035375940599e-07, -1.346463704976486e-07, -1.299891891903826e-07, -1.2533202209397132e-07, -1.2067484078670532e-07, -1.1601767369029403e-07, -1.1136049238302803e-07, -1.0670332528661675e-07, -1.0204614397935075e-07, -9.738897688293946e-08, -9.273180268110082e-08, -8.807462847926217e-08, -8.341745427742353e-08, -7.876028007558489e-08, -7.410310587374624e-08, -6.94459316719076e-08, -6.478875747006896e-08, -6.013158326823032e-08, -5.547440906639167e-08, -5.081723486455303e-08, -4.6160060662714386e-08, -4.150288646087574e-08, -3.684571936446446e-08, -3.2188545162625815e-08, -2.753137096078717e-08, -2.287418965352117e-08, -1.8217022557109885e-08, -1.3559841249843885e-08, -8.9026741534326e-09, -4.245492846166599e-09, 4.1167425024468685e-10, 5.068841346655972e-09, 9.726022653921973e-09, 1.4383189750333258e-08, 1.904037105759926e-08, 2.3697538154010545e-08, 2.8354719461276545e-08, 3.301189366311519e-08, 3.766906786495383e-08, 4.232623496136512e-08, 4.698340916320376e-08, 5.16405833650424e-08, 5.6297757566881046e-08, 6.095493176871969e-08, 6.561210597055833e-08, 7.026928017239698e-08, 7.492645437423562e-08, 7.958362857607426e-08, 8.42408027779129e-08, 8.889797697975155e-08, 9.355515118159019e-08, 9.821232538342883e-08, 1.0286949247984012e-07, 1.0752667378710612e-07, 1.121838408835174e-07, 1.168410221907834e-07, 1.214981892871947e-07, 1.261553705944607e-07, 1.3081253769087198e-07, 1.3546971899813798e-07, 1.4012688609454926e-07, 1.4478406740181526e-07, 1.4944123449822655e-07]}, "gradients/lstm.bias_ih_l0": {"_type": "histogram", "values": [1.0, 0.0, 0.0, 0.0, 0.0, 0.0, 0.0, 2.0, 1.0, 1.0, 2.0, 1.0, 1.0, 2.0, 5.0, 10.0, 51.0, 1067.0, 30.0, 16.0, 4.0, 2.0, 2.0, 0.0, 0.0, 0.0, 0.0, 0.0, 0.0, 0.0, 0.0, 1.0, 0.0, 0.0, 0.0, 0.0, 0.0, 0.0, 0.0, 0.0, 0.0, 0.0, 0.0, 0.0, 0.0, 0.0, 0.0, 0.0, 0.0, 0.0, 0.0, 0.0, 0.0, 0.0, 0.0, 0.0, 0.0, 0.0, 0.0, 0.0, 0.0, 0.0, 0.0, 1.0], "bins": [-1.391047899090836e-08, -1.3107329444039806e-08, -1.2304180785349672e-08, -1.1501031238481119e-08, -1.0697881691612565e-08, -9.894733032922431e-09, -9.091583486053878e-09, -8.288434827363744e-09, -7.48528528049519e-09, -6.682136177715847e-09, -5.878987074936504e-09, -5.07583752806795e-09, -4.272687981199397e-09, -3.469539322509263e-09, -2.6663897756407096e-09, -1.863241116950576e-09, -1.0600915700820224e-09, -2.5694202321346893e-10, 5.462066354766648e-10, 1.3493552941667986e-09, 2.152504841035352e-09, 2.9556543879039054e-09, 3.758803934772459e-09, 4.561953481641012e-09, 5.365103028509566e-09, 6.16825079902128e-09, 6.971400345889833e-09, 7.774549892758387e-09, 8.57769943962694e-09, 9.380848986495494e-09, 1.0183996757007208e-08, 1.0987146303875761e-08, 1.1790294962565895e-08, 1.2593444509434448e-08, 1.3396594056303002e-08, 1.4199741826814716e-08, 1.500289137368327e-08, 1.5806040920551823e-08, 1.6609190467420376e-08, 1.741234001428893e-08, 1.8215487784800644e-08, 1.9018637331669197e-08, 1.982178687853775e-08, 2.0624936425406304e-08, 2.1428085972274857e-08, 2.223123551914341e-08, 2.3034385066011964e-08, 2.3837532836523678e-08, 2.4640682383392232e-08, 2.5443831930260785e-08, 2.62469797007725e-08, 2.7050131023997892e-08, 2.7853278794509606e-08, 2.865642834137816e-08, 2.9459577888246713e-08, 3.026272565875843e-08, 3.106587698198382e-08, 3.1869024752495534e-08, 3.267217607572093e-08, 3.347532384623264e-08, 3.4278471616744355e-08, 3.508162293996975e-08, 3.588477071048146e-08, 3.6687922033706855e-08, 3.749106980421857e-08]}, "gradients/lstm.weight_ih_l0": {"_type": "histogram", "values": [1.0, 1.0, 0.0, 0.0, 0.0, 0.0, 0.0, 1.0, 0.0, 2.0, 0.0, 2.0, 3.0, 3.0, 3.0, 9.0, 7.0, 17.0, 35.0, 143.0, 55983.0, 3571.0, 145.0, 41.0, 12.0, 6.0, 3.0, 3.0, 2.0, 2.0, 0.0, 0.0, 1.0, 0.0, 0.0, 0.0, 0.0, 1.0, 1.0, 0.0, 0.0, 0.0, 0.0, 0.0, 0.0, 0.0, 0.0, 0.0, 0.0, 0.0, 0.0, 0.0, 0.0, 0.0, 0.0, 0.0, 0.0, 1.0, 0.0, 0.0, 0.0, 0.0, 0.0, 1.0], "bins": [-5.688963256034185e-08, -5.4176052088905635e-08, -5.146247161746942e-08, -4.874889469874688e-08, -4.6035310674596985e-08, -4.332173375587445e-08, -4.060815328443823e-08, -3.7894572813002014e-08, -3.51809923415658e-08, -3.246741187012958e-08, -2.9753831398693364e-08, -2.7040250927257148e-08, -2.432667400853461e-08, -2.1613093537098393e-08, -1.8899513065662177e-08, -1.618593259422596e-08, -1.3472352122789744e-08, -1.0758771651353527e-08, -8.04519117991731e-09, -5.331610708481094e-09, -2.618030237044877e-09, 9.554668167766067e-11, 2.809130705827556e-09, 5.522707624550094e-09, 8.236284543272632e-09, 1.0949868567422527e-08, 1.3663445486145065e-08, 1.637702951029496e-08, 1.9090606429017498e-08, 2.1804190453167394e-08, 2.451776737188993e-08, 2.7231351396039827e-08, 2.994492120933501e-08, 3.2658498128057545e-08, 3.537208215220744e-08, 3.808565907092998e-08, 4.0799243095079873e-08, 4.351282001380241e-08, 4.6226404037952307e-08, 4.8939980956674844e-08, 5.165356498082474e-08, 5.436714189954728e-08, 5.7080718818269816e-08, 5.979430284241971e-08, 6.250787976114225e-08, 6.522145667986479e-08, 6.793504070401468e-08, 7.064862472816458e-08, 7.336220164688712e-08, 7.607577856560965e-08, 7.878936258975955e-08, 8.150294661390944e-08, 8.421652353263198e-08, 8.693010045135452e-08, 8.964367737007706e-08, 9.235726139422695e-08, 9.507084541837685e-08, 9.778442233709939e-08, 1.0049799925582192e-07, 1.0321158327997182e-07, 1.0592516019869436e-07, 1.0863874422284425e-07, 1.1135232114156679e-07, 1.1406590516571669e-07, 1.1677948208443922e-07]}, "gradients/imf2lstm_c.bias": {"_type": "histogram", "values": [1.0, 0.0, 0.0, 0.0, 0.0, 0.0, 0.0, 0.0, 0.0, 0.0, 0.0, 0.0, 0.0, 0.0, 0.0, 0.0, 0.0, 0.0, 0.0, 0.0, 0.0, 0.0, 0.0, 0.0, 0.0, 0.0, 0.0, 0.0, 0.0, 0.0, 0.0, 0.0, 0.0, 0.0, 0.0, 0.0, 0.0, 0.0, 0.0, 0.0, 0.0, 0.0, 0.0, 0.0, 0.0, 0.0, 0.0, 0.0, 0.0, 0.0, 0.0, 0.0, 0.0, 0.0, 0.0, 0.0, 0.0, 1.0, 1.0, 0.0, 4.0, 290.0, 2.0, 1.0], "bins": [-2.0873252651654184e-05, -2.053421485470608e-05, -2.0195178876747377e-05, -1.9856141079799272e-05, -1.9517103282851167e-05, -1.9178065485903062e-05, -1.883902950794436e-05, -1.8499991710996255e-05, -1.816095391404815e-05, -1.7821916117100045e-05, -1.7482880139141344e-05, -1.714384234219324e-05, -1.6804806364234537e-05, -1.6465768567286432e-05, -1.6126730770338327e-05, -1.578769297339022e-05, -1.5448655176442116e-05, -1.5109619198483415e-05, -1.477058140153531e-05, -1.4431543604587205e-05, -1.4092506717133801e-05, -1.3753469829680398e-05, -1.3414432032732293e-05, -1.307539514527889e-05, -1.2736358257825486e-05, -1.2397320460877381e-05, -1.2058283573423978e-05, -1.1719245776475873e-05, -1.138020888902247e-05, -1.1041171092074364e-05, -1.0702134204620961e-05, -1.0363096407672856e-05, -1.0024060429714154e-05, -9.685023542260751e-06, -9.345985745312646e-06, -9.006948857859243e-06, -8.667911060911138e-06, -8.328874173457734e-06, -7.98983637650963e-06, -7.650799489056226e-06, -7.311761692108121e-06, -6.9727248046547174e-06, -6.633687462453963e-06, -6.294650120253209e-06, -5.955613232799806e-06, -5.6165758905990515e-06, -5.277538548398297e-06, -4.938501206197543e-06, -4.599463863996789e-06, -4.260426521796035e-06, -3.9213891795952804e-06, -3.5823516100208508e-06, -3.2433142678200966e-06, -2.904277152993018e-06, -2.565240038165939e-06, -2.226202695965185e-06, -1.8871653537644306e-06, -1.5481280115636764e-06, -1.2090906693629222e-06, -8.700536113792623e-07, -5.310162691785081e-07, -1.9197892697775387e-07, 1.4705830153616262e-07, 4.86095586893498e-07, 8.251328722508333e-07]}, "gradients/imf2lstm_c.weight": {"_type": "histogram", "values": [1.0, 0.0, 0.0, 0.0, 0.0, 0.0, 0.0, 0.0, 0.0, 1.0, 0.0, 0.0, 0.0, 0.0, 0.0, 0.0, 0.0, 0.0, 0.0, 0.0, 0.0, 0.0, 0.0, 1.0, 0.0, 0.0, 0.0, 0.0, 0.0, 1.0, 0.0, 1.0, 0.0, 1.0, 0.0, 2.0, 0.0, 3.0, 3.0, 1.0, 7.0, 3.0, 6.0, 8.0, 7.0, 8.0, 14.0, 16.0, 24.0, 22.0, 32.0, 34.0, 33.0, 40.0, 36.0, 50.0, 53.0, 40.0, 30.0, 93.0, 1285.0, 151702.0, 37.0, 5.0], "bins": [-0.00013925466919317842, -0.0001369784149574116, -0.00013470217527356, -0.00013242592103779316, -0.00013014966680202633, -0.0001278734125662595, -0.0001255971728824079, -0.00012332091864664108, -0.00012104466441087425, -0.00011876841745106503, -0.00011649217049125582, -0.00011421591625548899, -0.00011193966929567978, -0.00010966341505991295, -0.00010738716810010374, -0.00010511091386433691, -0.0001028346669045277, -0.00010055841994471848, -9.828216570895165e-05, -9.600591147318482e-05, -9.372966451337561e-05, -9.14534175535664e-05, -8.917716331779957e-05, -8.690091635799035e-05, -8.462466939818114e-05, -8.234841516241431e-05, -8.007216092664748e-05, -7.779591396683827e-05, -7.551966700702906e-05, -7.324341277126223e-05, -7.096716581145301e-05, -6.869091157568619e-05, -6.641466461587697e-05, -6.413841765606776e-05, -6.186216342030093e-05, -5.958591646049172e-05, -5.730966222472489e-05, -5.5033415264915675e-05, -5.2757164667127654e-05, -5.048091406933963e-05, -4.820466347155161e-05, -4.592841287376359e-05, -4.365216227597557e-05, -4.137591167818755e-05, -3.9099664718378335e-05, -3.6823414120590314e-05, -3.454716352280229e-05, -3.227091292501427e-05, -2.9994660508236848e-05, -2.7718409910448827e-05, -2.5442159312660806e-05, -2.316591053386219e-05, -2.0889659936074167e-05, -1.8613409338286147e-05, -1.633716055948753e-05, -1.4060909961699508e-05, -1.1784659363911487e-05, -9.508408766123466e-06, -7.232159532577498e-06, -4.955909844284179e-06, -2.6796592464961577e-06, -4.0340910345548764e-07, 1.8728410395851824e-06, 4.1490911826258525e-06, 6.425341325666523e-06]}, "gradients/imf2lstm_h.bias": {"_type": "histogram", "values": [1.0, 2.0, 0.0, 1.0, 2.0, 0.0, 1.0, 4.0, 3.0, 2.0, 1.0, 3.0, 5.0, 8.0, 4.0, 2.0, 10.0, 4.0, 10.0, 6.0, 5.0, 10.0, 10.0, 7.0, 9.0, 5.0, 6.0, 8.0, 8.0, 5.0, 9.0, 9.0, 7.0, 9.0, 2.0, 3.0, 3.0, 8.0, 7.0, 9.0, 7.0, 7.0, 15.0, 9.0, 6.0, 7.0, 4.0, 2.0, 8.0, 5.0, 4.0, 3.0, 5.0, 1.0, 0.0, 2.0, 0.0, 2.0, 1.0, 1.0, 1.0, 1.0, 0.0, 1.0], "bins": [-1.4507886589854024e-06, -1.4043232567928499e-06, -1.357857968287135e-06, -1.3113925660945824e-06, -1.2649272775888676e-06, -1.218461875396315e-06, -1.1719965868906002e-06, -1.1255311846980476e-06, -1.0790658961923327e-06, -1.0326004939997802e-06, -9.861352054940653e-07, -9.396698033015127e-07, -8.93204457952379e-07, -8.467391126032453e-07, -8.002737672541116e-07, -7.538084219049779e-07, -7.073430765558442e-07, -6.608777312067105e-07, -6.144123858575767e-07, -5.67947040508443e-07, -5.214816951593093e-07, -4.750163498101756e-07, -4.28550947617623e-07, -3.8208565911190817e-07, -3.356202569193556e-07, -2.8915496841364074e-07, -2.4268956622108817e-07, -1.9622427771537332e-07, -1.4975887552282074e-07, -1.0329358701710589e-07, -5.682818482455332e-08, -1.0362896318838466e-08, 3.610250587371411e-08, 8.256790806626668e-08, 1.2903319657198153e-07, 1.754985987645341e-07, 2.2196388727024896e-07, 2.6842928946280153e-07, 3.148945779685164e-07, 3.6135998016106896e-07, 4.078252686667838e-07, 4.542906708593364e-07, 5.007559593650512e-07, 5.472213615576038e-07, 5.936867069067375e-07, 6.401520522558712e-07, 6.86617397605005e-07, 7.330827429541387e-07, 7.795480883032724e-07, 8.260134336524061e-07, 8.724787790015398e-07, 9.189441243506735e-07, 9.65409526543226e-07, 1.011874815048941e-06, 1.0583402172414935e-06, 1.1048055057472084e-06, 1.151270907939761e-06, 1.1977361964454758e-06, 1.2442015986380284e-06, 1.2906668871437432e-06, 1.3371322893362958e-06, 1.3835975778420107e-06, 1.4300629800345632e-06, 1.476528268540278e-06, 1.5229936707328307e-06]}, "gradients/imf2lstm_h.weight": {"_type": "histogram", "values": [1.0, 3.0, 1.0, 5.0, 5.0, 9.0, 4.0, 14.0, 12.0, 12.0, 23.0, 16.0, 21.0, 36.0, 52.0, 60.0, 87.0, 116.0, 151.0, 209.0, 305.0, 451.0, 616.0, 933.0, 1475.0, 2205.0, 3431.0, 5691.0, 9330.0, 14587.0, 21700.0, 27403.0, 22750.0, 15312.0, 9757.0, 5937.0, 3601.0, 2349.0, 1522.0, 1011.0, 682.0, 495.0, 302.0, 240.0, 173.0, 115.0, 79.0, 74.0, 53.0, 48.0, 22.0, 24.0, 18.0, 13.0, 9.0, 13.0, 11.0, 6.0, 7.0, 7.0, 1.0, 3.0, 1.0, 1.0], "bins": [-7.949704922793899e-06, -7.697797627770342e-06, -7.445890332746785e-06, -7.193983037723228e-06, -6.9420757426996715e-06, -6.690168447676115e-06, -6.438260697905207e-06, -6.18635340288165e-06, -5.9344461078580935e-06, -5.682538812834537e-06, -5.43063151781098e-06, -5.178723768040072e-06, -4.926816473016515e-06, -4.6749091779929586e-06, -4.423001882969402e-06, -4.171094587945845e-06, -3.919187292922288e-06, -3.6672799978987314e-06, -3.4153727028751746e-06, -3.1634654078516178e-06, -2.911558112828061e-06, -2.6596503630571533e-06, -2.4077430680335965e-06, -2.1558357730100397e-06, -1.903928477986483e-06, -1.652021182962926e-06, -1.4001138879393693e-06, -1.1482065929158125e-06, -8.962988431449048e-07, -6.44391548121348e-07, -3.924842530977912e-07, -1.4057695807423443e-07, 1.1133033694932237e-07, 3.6323763197287917e-07, 6.15144926996436e-07, 8.670522220199928e-07, 1.1189595170435496e-06, 1.3708672668144573e-06, 1.622774561838014e-06, 1.8746818568615709e-06, 2.1265891518851276e-06, 2.3784964469086844e-06, 2.6304037419322412e-06, 2.882311036955798e-06, 3.1342187867267057e-06, 3.3861260817502625e-06, 3.6380333767738193e-06, 3.889940671797376e-06, 4.141847966820933e-06, 4.39375526184449e-06, 4.6456625568680465e-06, 4.897569851891603e-06, 5.14947714691516e-06, 5.401384441938717e-06, 5.653292191709625e-06, 5.905199486733181e-06, 6.157106781756738e-06, 6.409014076780295e-06, 6.660921371803852e-06, 6.9128291215747595e-06, 7.164736416598316e-06, 7.416643711621873e-06, 7.66855100664543e-06, 7.920458301668987e-06, 8.172365596692543e-06]}, "_wandb": {"runtime": 93}}